<?xml version="1.0"?>
<opencv_storage>
<cascade>
  <stageType>BOOST</stageType>
  <featureType>LBP</featureType>
  <height>38</height>
  <width>38</width>
  <stageParams>
    <boostType>GAB</boostType>
    <minHitRate>9.9500000476837158e-01</minHitRate>
    <maxFalseAlarm>5.0000000000000000e-01</maxFalseAlarm>
    <weightTrimRate>9.4999999999999996e-01</weightTrimRate>
    <maxDepth>1</maxDepth>
    <maxWeakCount>100</maxWeakCount></stageParams>
  <featureParams>
    <maxCatCount>256</maxCatCount>
    <featSize>1</featSize></featureParams>
  <stageNum>24</stageNum>
  <stages>
    <!-- stage 0 -->
    <_>
      <maxWeakCount>1</maxWeakCount>
      <stageThreshold>9.9000996351242065e-01</stageThreshold>
      <weakClassifiers>
        <_>
          <internalNodes>
            0 -1 6 -1610612745 1225588749 -2063329891 -275939323
            1619046911 -1199013384 294695329 -1163362176</internalNodes>
          <leafValues>
            -9.7324413061141968e-01 9.9000996351242065e-01</leafValues></_></weakClassifiers></_>
    <!-- stage 1 -->
    <_>
      <maxWeakCount>1</maxWeakCount>
      <stageThreshold>9.5102840662002563e-01</stageThreshold>
      <weakClassifiers>
        <_>
          <internalNodes>
            0 -1 5 -1247809101 -1865375350 268533760 -212533118
            -1999077245 -2147352576 -1069170555 -774913563</internalNodes>
          <leafValues>
            -9.7132617235183716e-01 9.5102840662002563e-01</leafValues></_></weakClassifiers></_>
    <!-- stage 2 -->
    <_>
      <maxWeakCount>1</maxWeakCount>
      <stageThreshold>9.5298725366592407e-01</stageThreshold>
      <weakClassifiers>
        <_>
          <internalNodes>
            0 -1 0 -1005494801 1895841984 49543 1157824513 -1073184566
            -1207828455 -905959281 1294672391</internalNodes>
          <leafValues>
            -9.7849464416503906e-01 9.5298725366592407e-01</leafValues></_></weakClassifiers></_>
    <!-- stage 3 -->
    <_>
      <maxWeakCount>1</maxWeakCount>
      <stageThreshold>9.4926828145980835e-01</stageThreshold>
      <weakClassifiers>
        <_>
          <internalNodes>
            0 -1 3 -800861493 -782204896 49153 -1790914141 1351305226
            67125386 -939376605 1936454299</internalNodes>
          <leafValues>
            -9.9272727966308594e-01 9.4926828145980835e-01</leafValues></_></weakClassifiers></_>
    <!-- stage 4 -->
    <_>
      <maxWeakCount>2</maxWeakCount>
      <stageThreshold>2.4935821071267128e-02</stageThreshold>
      <weakClassifiers>
        <_>
          <internalNodes>
            0 -1 4 -1 -16401 -1 -16777217 -998235376 -853670095
            -653623106 -13960798</internalNodes>
          <leafValues>
            -9.4557821750640869e-01 9.7216701507568359e-01</leafValues></_>
        <_>
          <internalNodes>
            0 -1 42 -1788350497 -1358847986 -1458988775 -608839665
            -1784740722 -1448247126 262635923 -335813635</internalNodes>
          <leafValues>
            -9.1351854801177979e-01 9.7051405906677246e-01</leafValues></_></weakClassifiers></_>
    <!-- stage 5 -->
    <_>
      <maxWeakCount>2</maxWeakCount>
      <stageThreshold>5.3479433059692383e-02</stageThreshold>
      <weakClassifiers>
        <_>
          <internalNodes>
            0 -1 39 -1 -129 -1 1929314047 -1849690773 -49152 -1426029569
            -24652657</internalNodes>
          <leafValues>
            -8.8741719722747803e-01 9.6993988752365112e-01</leafValues></_>
        <_>
          <internalNodes>
            0 -1 9 -216828961 1502415371 -1878421237 1909013069
            -511631190 -1870528512 1182302878 -50665525</internalNodes>
          <leafValues>
            -9.1646045446395874e-01 9.5651191473007202e-01</leafValues></_></weakClassifiers></_>
    <!-- stage 6 -->
    <_>
      <maxWeakCount>2</maxWeakCount>
      <stageThreshold>-4.4037673622369766e-02</stageThreshold>
      <weakClassifiers>
        <_>
          <internalNodes>
            0 -1 25 -787111137 2098270227 134222109 1963143169
            -2013230855 -133559679 -1409091413 947486907</internalNodes>
          <leafValues>
            -9.5714282989501953e-01 9.4901961088180542e-01</leafValues></_>
        <_>
          <internalNodes>
            0 -1 24 -652820009 891289600 -251045603 -184184768
            -1560248081 -1199406968 -2012739432 414909163</internalNodes>
          <leafValues>
            -9.8012304306030273e-01 9.1310518980026245e-01</leafValues></_></weakClassifiers></_>
    <!-- stage 7 -->
    <_>
      <maxWeakCount>2</maxWeakCount>
      <stageThreshold>-9.6286246553063393e-03</stageThreshold>
      <weakClassifiers>
        <_>
          <internalNodes>
            0 -1 30 -16777217 -8388609 -1 1392443391 -1601920134
            -604830320 -1979675237 -89130801</internalNodes>
          <leafValues>
            -9.0909093618392944e-01 9.4674557447433472e-01</leafValues></_>
        <_>
          <internalNodes>
            0 -1 7 1359069471 -716099565 1090590471 1963164483 679579567
            335708164 178948351 860045755</internalNodes>
          <leafValues>
            -9.8534220457077026e-01 8.9946228265762329e-01</leafValues></_></weakClassifiers></_>
    <!-- stage 8 -->
    <_>
      <maxWeakCount>2</maxWeakCount>
      <stageThreshold>-2.9030764475464821e-02</stageThreshold>
      <weakClassifiers>
        <_>
          <internalNodes>
            0 -1 10 -216982573 -83686911 -2146434787 -1123024637
            -2004539239 -1433075574 -1987409445 1795244555</internalNodes>
          <leafValues>
            -9.5505619049072266e-01 9.2449176311492920e-01</leafValues></_>
        <_>
          <internalNodes>
            0 -1 41 -177 -161 -1 -78446753 -129 -1 -1 1652555775</internalNodes>
          <leafValues>
            -8.6099576950073242e-01 9.2602539062500000e-01</leafValues></_></weakClassifiers></_>
    <!-- stage 9 -->
    <_>
      <maxWeakCount>2</maxWeakCount>
      <stageThreshold>-1.8501125276088715e-02</stageThreshold>
      <weakClassifiers>
        <_>
          <internalNodes>
            0 -1 35 -1 -100663425 421897557 1376457241 -1157490421
            -1006546920 -1929215845 -91511141</internalNodes>
          <leafValues>
            -9.0106004476547241e-01 9.3903636932373047e-01</leafValues></_>
        <_>
          <internalNodes>
            0 -1 12 -61608786 -780599006 -1602091987 -1146911847
            -511081586 -1195311070 -1068459381 -621575281</internalNodes>
          <leafValues>
            -8.7833833694458008e-01 8.8255894184112549e-01</leafValues></_></weakClassifiers></_>
    <!-- stage 10 -->
    <_>
      <maxWeakCount>2</maxWeakCount>
      <stageThreshold>-8.9225694537162781e-02</stageThreshold>
      <weakClassifiers>
        <_>
          <internalNodes>
            0 -1 1 1098056703 -1761541863 -1861115625 -1324220399
            411320799 -1188525512 688407039 2142962375</internalNodes>
          <leafValues>
            -9.5121949911117554e-01 8.8614803552627563e-01</leafValues></_>
        <_>
          <internalNodes>
            0 -1 19 1621284062 -931118970 4334873 -377214908 -401874747
            -62824297 -1993243635 -678434465</internalNodes>
          <leafValues>
            -8.6327135562896729e-01 8.6199384927749634e-01</leafValues></_></weakClassifiers></_>
    <!-- stage 11 -->
    <_>
      <maxWeakCount>2</maxWeakCount>
      <stageThreshold>-1.2491901870816946e-03</stageThreshold>
      <weakClassifiers>
        <_>
          <internalNodes>
            0 -1 44 -1073741889 -1994940130 -1073741827 -1 1073709055
            1073741823 2147442165 -69215235</internalNodes>
          <leafValues>
            -8.8636362552642822e-01 9.0154439210891724e-01</leafValues></_>
        <_>
          <internalNodes>
            0 -1 14 -519326417 -1056897011 17171521 -669171709
            -1776762357 1242697873 -1333133253 -149688263</internalNodes>
          <leafValues>
            -7.8603559732437134e-01 8.8511443138122559e-01</leafValues></_></weakClassifiers></_>
    <!-- stage 12 -->
    <_>
      <maxWeakCount>2</maxWeakCount>
      <stageThreshold>-1.9646880682557821e-03</stageThreshold>
      <weakClassifiers>
        <_>
          <internalNodes>
            0 -1 11 -1052268601 885334041 -2130638848 -2003726208
            -1055988913 -804720624 -903658853 1393288067</internalNodes>
          <leafValues>
            -8.8932806253433228e-01 8.8347661495208740e-01</leafValues></_>
        <_>
          <internalNodes>
            0 -1 28 -5308 -10486975 -1 -11010049 -32532 -16777739
            -33685761 -268435457</internalNodes>
          <leafValues>
            -8.0450642108917236e-01 8.8736337423324585e-01</leafValues></_></weakClassifiers></_>
    <!-- stage 13 -->
    <_>
      <maxWeakCount>2</maxWeakCount>
      <stageThreshold>5.6723505258560181e-02</stageThreshold>
      <weakClassifiers>
        <_>
          <internalNodes>
            0 -1 15 -269537533 -51329 -1 -1 -269570642 -1 -806375425
            -538865675</internalNodes>
          <leafValues>
            -7.2575253248214722e-01 9.1608393192291260e-01</leafValues></_>
        <_>
          <internalNodes>
            0 -1 18 -926525818 1728389643 72357151 -400998270 -469624766
            -1851850607 -397930249 -890263977</internalNodes>
          <leafValues>
            -8.5936039686203003e-01 8.3034825325012207e-01</leafValues></_></weakClassifiers></_>
    <!-- stage 14 -->
    <_>
      <maxWeakCount>2</maxWeakCount>
      <stageThreshold>-9.7856111824512482e-02</stageThreshold>
      <weakClassifiers>
        <_>
          <internalNodes>
            0 -1 43 -766295729 1262649344 -2113927935 2038431744
            -2147237854 -922714108 -534527701 -230493409</internalNodes>
          <leafValues>
            -9.5555555820465088e-01 8.5116279125213623e-01</leafValues></_>
        <_>
          <internalNodes>
            0 -1 29 -233613060 -1853877998 -1073479484 1561436235 589964
            -1714929660 134420765 -410783029</internalNodes>
          <leafValues>
            -8.5477286577224731e-01 8.5769945383071899e-01</leafValues></_></weakClassifiers></_>
    <!-- stage 15 -->
    <_>
      <maxWeakCount>2</maxWeakCount>
      <stageThreshold>-1.3930479995906353e-02</stageThreshold>
      <weakClassifiers>
        <_>
          <internalNodes>
            0 -1 13 -269586706 -1187954689 -1861972141 -721387320
            1095631307 -588017125 1209108680 -122159935</internalNodes>
          <leafValues>
            -8.4251970052719116e-01 8.7380498647689819e-01</leafValues></_>
        <_>
          <internalNodes>
            0 -1 33 -117014127 -1153333097 -2013180823 -410959605
            -1070940111 -1987931360 1140879789 -544329566</internalNodes>
          <leafValues>
            -7.8834152221679688e-01 8.2858920097351074e-01</leafValues></_></weakClassifiers></_>
    <!-- stage 16 -->
    <_>
      <maxWeakCount>2</maxWeakCount>
      <stageThreshold>5.9884320944547653e-04</stageThreshold>
      <weakClassifiers>
        <_>
          <internalNodes>
            0 -1 8 -32769 2147450879 2147450879 1082228479 -939245421
            -1943420416 -499011452 -67185645</internalNodes>
          <leafValues>
            -8.5156250000000000e-01 8.7931036949157715e-01</leafValues></_>
        <_>
          <internalNodes>
            0 -1 17 1439912959 -1827957481 -1072426933 1999708243
            -1056374134 421299212 -1132445559 -14489946</internalNodes>
          <leafValues>
            -7.8363418579101563e-01 8.5216134786605835e-01</leafValues></_></weakClassifiers></_>
    <!-- stage 17 -->
    <_>
      <maxWeakCount>2</maxWeakCount>
      <stageThreshold>3.9877522736787796e-02</stageThreshold>
      <weakClassifiers>
        <_>
          <internalNodes>
            0 -1 37 -1 -268435457 -2146171905 -4 -1 -1879048193
            -1487893513 -612310999</internalNodes>
          <leafValues>
            -7.6296293735504150e-01 8.7961167097091675e-01</leafValues></_>
        <_>
          <internalNodes>
            0 -1 16 -938146014 1362166095 -779732579 -225832935
            -972961335 -2000683008 -183205237 -398329714</internalNodes>
          <leafValues>
            -8.2381165027618408e-01 8.0284047126770020e-01</leafValues></_></weakClassifiers></_>
    <!-- stage 18 -->
    <_>
      <maxWeakCount>2</maxWeakCount>
      <stageThreshold>6.6325262188911438e-02</stageThreshold>
      <weakClassifiers>
        <_>
          <internalNodes>
            0 -1 40 -1358971137 -121110785 -1878785775 -1055796583
            -1870384985 -1879031322 -1575188421 -569518544</internalNodes>
          <leafValues>
            -7.9766535758972168e-01 8.6768937110900879e-01</leafValues></_>
        <_>
          <internalNodes>
            0 -1 2 -1387820281 1551945789 302645253 -1052606399
            189596043 -1166016340 172752936 -125237220</internalNodes>
          <leafValues>
            -6.9612377882003784e-01 8.6399060487747192e-01</leafValues></_></weakClassifiers></_>
    <!-- stage 19 -->
    <_>
      <maxWeakCount>2</maxWeakCount>
      <stageThreshold>1.6965975984930992e-02</stageThreshold>
      <weakClassifiers>
        <_>
          <internalNodes>
            0 -1 34 -536872198 1597111226 -83887366 -12944390 2147483647
            2143222783 -100665094 -89391366</internalNodes>
          <leafValues>
            -7.5000000000000000e-01 8.6679536104202271e-01</leafValues></_>
        <_>
          <internalNodes>
            0 -1 23 -228703793 -687865402 1224867863 -1610477370
            -1608351613 805568800 -1845034744 -72736038</internalNodes>
          <leafValues>
            -7.2941952943801880e-01 7.6696598529815674e-01</leafValues></_></weakClassifiers></_>
    <!-- stage 20 -->
    <_>
      <maxWeakCount>2</maxWeakCount>
      <stageThreshold>-5.9617455117404461e-03</stageThreshold>
      <weakClassifiers>
        <_>
          <internalNodes>
            0 -1 27 -16908291 -1 -1 1493106430 -16777345 -16843009
            -65537 -1627390209</internalNodes>
          <leafValues>
            -7.5903612375259399e-01 8.4586107730865479e-01</leafValues></_>
        <_>
          <internalNodes>
            0 -1 20 1346433375 -792722421 -535149309 1879232922
            -2080108470 -1182759767 1384151182 -52760485</internalNodes>
          <leafValues>
            -7.6986902952194214e-01 7.5307440757751465e-01</leafValues></_></weakClassifiers></_>
    <!-- stage 21 -->
    <_>
      <maxWeakCount>3</maxWeakCount>
      <stageThreshold>-4.0027007460594177e-01</stageThreshold>
      <weakClassifiers>
        <_>
          <internalNodes>
            0 -1 32 -2044460201 1102397441 50430658 830804096 16820618
            18890754 537182358 1658856074</internalNodes>
          <leafValues>
            -8.7434554100036621e-01 7.8178536891937256e-01</leafValues></_>
        <_>
          <internalNodes>
            0 -1 22 -263009025 -795733494 -1606352764 -1652416168
            -2132801785 1275076608 -725482973 -75889918</internalNodes>
          <leafValues>
            -6.7793500423431396e-01 7.1450889110565186e-01</leafValues></_>
        <_>
          <internalNodes>
            0 -1 36 -268452185 -12622537 1862270975 792721335 -805503755
            -1082133129 1828716543 -1084620929</internalNodes>
          <leafValues>
            -5.0412046909332275e-01 8.0807632207870483e-01</leafValues></_></weakClassifiers></_>
    <!-- stage 22 -->
    <_>
      <maxWeakCount>2</maxWeakCount>
      <stageThreshold>-1.2911967933177948e-01</stageThreshold>
      <weakClassifiers>
        <_>
          <internalNodes>
            0 -1 26 -720854607 366084385 83887373 -687341552 -1878916819
            -2063399129 -1945753187 432291976</internalNodes>
          <leafValues>
            -8.8717949390411377e-01 7.9004526138305664e-01</leafValues></_>
        <_>
          <internalNodes>
            0 -1 38 2147221502 2079522426 -262145 -226824836 -134283329
            2143025916 -327938 -134558978</internalNodes>
          <leafValues>
            -6.0146230459213257e-01 7.5805979967117310e-01</leafValues></_></weakClassifiers></_>
    <!-- stage 23 -->
    <_>
      <maxWeakCount>2</maxWeakCount>
      <stageThreshold>-2.7264999225735664e-02</stageThreshold>
      <weakClassifiers>
        <_>
          <internalNodes>
            0 -1 31 -243 -8388769 2080374783 1316585472 -4540
            -1724383412 -919955318 -1090520700</internalNodes>
          <leafValues>
            -7.0135748386383057e-01 7.9240036010742188e-01</leafValues></_>
        <_>
          <internalNodes>
            0 -1 21 -116978889 -247906298 9633804 1544622211 -1073534396
            -880803840 -798908245 -1286946678</internalNodes>
          <leafValues>
            -6.3866162300109863e-01 6.7409247159957886e-01</leafValues></_></weakClassifiers></_></stages>
  <features>
    <_>
      <rect>
        0 1 4 5</rect></_>
    <_>
      <rect>
        0 1 9 2</rect></_>
    <_>
      <rect>
        0 6 4 5</rect></_>
    <_>
      <rect>
        0 11 2 9</rect></_>
    <_>
      <rect>
        0 32 6 2</rect></_>
    <_>
      <rect>
        1 0 2 7</rect></_>
    <_>
      <rect>
        1 1 6 2</rect></_>
    <_>
      <rect>
        1 5 12 10</rect></_>
    <_>
      <rect>
        2 16 1 7</rect></_>
    <_>
      <rect>
        2 25 2 4</rect></_>
    <_>
      <rect>
        2 31 8 2</rect></_>
    <_>
      <rect>
        3 6 2 5</rect></_>
    <_>
      <rect>
        3 6 4 5</rect></_>
    <_>
      <rect>
        3 9 3 3</rect></_>
    <_>
      <rect>
        5 0 5 7</rect></_>
    <_>
      <rect>
        5 6 2 4</rect></_>
    <_>
      <rect>
        6 9 2 2</rect></_>
    <_>
      <rect>
        7 7 3 3</rect></_>
    <_>
      <rect>
        8 1 4 4</rect></_>
    <_>
      <rect>
        8 4 4 3</rect></_>
    <_>
      <rect>
        9 7 2 2</rect></_>
    <_>
      <rect>
        9 11 1 1</rect></_>
    <_>
      <rect>
        10 6 1 2</rect></_>
    <_>
      <rect>
        11 7 1 2</rect></_>
    <_>
      <rect>
        12 32 8 2</rect></_>
    <_>
      <rect>
        13 0 7 2</rect></_>
    <_>
      <rect>
        18 30 5 2</rect></_>
    <_>
      <rect>
        19 1 5 1</rect></_>
    <_>
      <rect>
        19 4 5 3</rect></_>
    <_>
      <rect>
        19 26 4 4</rect></_>
    <_>
      <rect>
        22 1 5 2</rect></_>
    <_>
      <rect>
        22 5 4 2</rect></_>
    <_>
      <rect>
        22 22 5 4</rect></_>
    <_>
      <rect>
        22 28 4 2</rect></_>
    <_>
      <rect>
        24 19 4 4</rect></_>
    <_>
      <rect>
        25 2 4 2</rect></_>
    <_>
      <rect>
        25 26 2 2</rect></_>
    <_>
      <rect>
        26 30 4 2</rect></_>
    <_>
      <rect>
        27 21 2 4</rect></_>
    <_>
      <rect>
        29 4 3 2</rect></_>
    <_>
      <rect>
        31 26 2 4</rect></_>
    <_>
      <rect>
        32 7 2 5</rect></_>
    <_>
      <rect>
        32 22 2 5</rect></_>
    <_>
      <rect>
        35 1 1 8</rect></_>
    <_>
      <rect>
        35 13 1 8</rect></_></features></cascade>
</opencv_storage>
